#include "parameter.h"

const float Conv_1_bias[CONV_1_OUTPUT_CHANNEL] = 
{0.19693702459335327, 0.5118004083633423, -0.20272667706012726, 0.1187349334359169, 0.5730575323104858};
const float Conv_2_bias[CONV_2_OUTPUT_CHANNEL] = 
{0.3262167274951935, -0.04947565495967865, 0.22135931253433228, 0.37394604086875916, 0.0945039689540863, 
0.08125806599855423, 0.18269871175289154, 0.26038727164268494, -0.049217402935028076, 0.0946173146367073};
const float Conv_3_bias[CONV_3_OUTPUT_CHANNEL] = 
{0.08344972878694534, 0.08999430388212204, 0.12762868404388428, 0.04507323354482651, 0.05165454000234604, 
0.01261820737272501, 0.024566372856497765, 0.03178867697715759, 0.1377611756324768, 0.08505508303642273};


const float Conv_1_weight[CONV_1_OUTPUT_CHANNEL][1][3][3] = 
{
    0.3990568518638611, 0.7084752321243286, 0.20736217498779297,
    0.6367433667182922, 0.373209148645401, 0.3538806140422821,
    0.07679303735494614, 0.3419353663921356, -0.17274713516235352,


    0.23760253190994263, -0.15356744825839996, -0.6915156841278076,
    0.15997788310050964, -0.7536685466766357, -0.07489063590765,
    -0.7756345868110657, -0.14850832521915436, 0.2936113774776459,


    -0.2838756740093231, -0.2849031388759613, 0.061287134885787964,
    0.1378249078989029, 0.07383769750595093, -0.08969826251268387,
    -0.018792107701301575, -0.05890226736664772, -0.019928833469748497,


    0.4474402070045471, 0.724209189414978, 0.8497930765151978,
    0.34465929865837097, 0.6582867503166199, 0.833298921585083,
    0.01561690866947174, 0.1918555498123169, 0.18128882348537445,


    -0.08175258338451385, -0.574528694152832, -0.6648568511009216,
    -0.4926743805408478, -0.17842230200767517, -0.07971257716417313,
    -0.6843568086624146, -0.16150759160518646, 0.26383087038993835
};

const float Conv_2_weight[CONV_2_OUTPUT_CHANNEL][CONV_1_OUTPUT_CHANNEL][3][3] = 
{
    -0.04072689637541771, 0.08421061187982559, 0.3108906149864197,
    0.11999539285898209, 0.19873809814453125, 0.31142890453338623,
    0.10355083644390106, 0.0428561270236969, 0.11854895204305649,

    0.2190079241991043, 0.3171840012073517, 0.06580869108438492,
    0.20347441732883453, -0.0033937047701328993, -0.630463182926178,
    -0.04025817662477493, -0.4170493185520172, -0.42466095089912415,

    -0.0751047357916832, 0.059673938900232315, -0.14155711233615875,
    -0.10440033674240112, -0.0574643649160862, -0.007848338223993778,
    0.0829114019870758, -0.015146078541874886, 0.028530167415738106,

    0.1672816127538681, 0.20101098716259003, 0.23893004655838013,
    0.052001357078552246, 0.23707623779773712, 0.2835625410079956,
    0.12942220270633698, 0.08877004683017731, 0.0780983492732048,

    0.19701381027698517, 0.02268182672560215, 0.05290640890598297,
    0.01600363291800022, -0.08842812478542328, -0.5220808982849121,
    0.06710782647132874, -0.21836116909980774, -0.12210584431886673,


    0.3818345069885254, 0.2659966051578522, -0.3899689316749573,
    0.2593644857406616, 0.3569936752319336, -0.41375091671943665,
    0.19108781218528748, 0.18120922148227692, -0.40073123574256897,

    -0.17871500551700592, 0.17948807775974274, 0.1826169490814209,
    -0.031063217669725418, 0.4272855222225189, 0.44999009370803833,
    -0.16084401309490204, 0.310175359249115, 0.45321881771087646,

    -0.07559074461460114, -0.05861105024814606, -0.08009228855371475,
    -0.08438975363969803, -0.04166026413440704, 0.02497543953359127,
    0.11743238568305969, -0.04098784178495407, -0.14733730256557465,

    0.3323127329349518, 0.008879510685801506, -0.7531588673591614,
    0.27736037969589233, 0.14689689874649048, -0.834874153137207,
    0.31009313464164734, -0.018526090309023857, -0.5304296612739563,

    0.0024086886551231146, 0.07777690142393112, 0.24212662875652313,
    -0.057240650057792664, 0.3288417160511017, 0.2858913838863373,
    -0.08377017825841904, 0.31202274560928345, 0.28504881262779236,


    0.22847871482372284, 0.15213295817375183, -0.008931704796850681,
    0.24500104784965515, -0.17762823402881622, -0.3225930333137512,
    -0.08762712776660919, -0.22486548125743866, 0.0957985371351242,

    0.05109880864620209, 0.1332419365644455, 0.26163122057914734,
    0.06325291097164154, 0.35354286432266235, 0.27799463272094727,
    0.19757890701293945, 0.5091724991798401, 0.4233073890209198,

    0.07158063352108002, 0.1252036988735199, 0.011864952743053436,
    -0.02960251457989216, -0.14932028949260712, -0.054546140134334564,
    0.07941699773073196, -0.1441253274679184, 0.08310319483280182,

    0.24090243875980377, 0.08651965856552124, 0.18038956820964813,
    -0.097805455327034, -0.401218444108963, -0.29611822962760925,
    -0.15275266766548157, -0.40511664748191833, -0.03695213794708252,

    0.18158121407032013, 0.0592002309858799, 0.4436376392841339,
    0.03132468834519386, 0.3231372535228729, 0.1283925473690033,
    0.4141315817832947, 0.3899540305137634, 0.3601537346839905,


    0.04692172631621361, 0.13328629732131958, 0.2732333242893219,
    0.05117383971810341, 0.04638446122407913, -0.26566752791404724,
    0.036820512264966965, 0.2554567754268646, 0.00019821331079583615,

    0.38991618156433105, 0.26412051916122437, 0.018014153465628624,
    -0.059094980359077454, -0.14664526283740997, 0.0866137221455574,
    -0.28731974959373474, -0.6846497654914856, -0.3460667133331299,

    0.06178434565663338, 0.140950009226799, -0.03428499773144722,
    -0.019645554944872856, 0.030133619904518127, -0.08636698126792908,
    0.13728654384613037, 0.05348924547433853, 0.137156680226326,

    0.1898670643568039, 0.36401230096817017, -0.31817251443862915,
    0.11472191661596298, 0.17305217683315277, -0.5288439989089966,
    0.12707410752773285, 0.35556289553642273, 0.18389011919498444,

    0.21197496354579926, 0.023204242810606956, 0.2570975124835968,
    -0.03792368248105049, -0.19616228342056274, 0.3719322085380554,
    -0.16458232700824738, -0.49503597617149353, -0.24925479292869568,


    0.12367535382509232, 0.055180735886096954, -0.04189807176589966,
    0.23626425862312317, 0.31065165996551514, 0.5155871510505676,
    -0.06517822295427322, 0.1257006973028183, -0.1865052580833435,

    0.15181289613246918, 0.21904289722442627, 0.2275848388671875,
    0.1617540568113327, 0.0315878726541996, -0.2511650323867798,
    0.32368960976600647, 0.30061858892440796, 0.20536752045154572,

    0.03574354201555252, 0.026338592171669006, 0.013596981763839722,
    0.12953177094459534, -0.1360669732093811, 0.1488509327173233,
    0.12036384642124176, 0.14764101803302765, -0.12271128594875336,

    -0.08406233787536621, -0.08236794173717499, -0.012654210440814495,
    0.3884608745574951, 0.47262895107269287, 0.5375540852546692,
    -0.1301439255475998, 0.08023376762866974, -0.22777380049228668,

    0.0728868916630745, 0.14476053416728973, 0.14358969032764435,
    -0.037643663585186005, 0.06221301481127739, -0.45770499110221863,
    0.22595416009426117, 0.2587277889251709, 0.15629814565181732,


    0.06417466700077057, -0.04513859003782272, -0.04129483550786972,
    -0.23678715527057648, -0.06797770410776138, 0.1561119258403778,
    0.1735432744026184, 0.2572256922721863, 0.2290564477443695,

    0.20607122778892517, 0.2856166660785675, 0.11863388866186142,
    0.3588053584098816, 0.19734609127044678, 0.09236708283424377,
    0.13123787939548492, -0.08358466625213623, -0.354471892118454,

    0.12352676689624786, -0.0008642408647574484, -0.029443426057696342,
    0.021193860098719597, 0.0391971729695797, 0.0355706550180912,
    0.13305546343326569, -0.047271568328142166, -0.07936199009418488,

    -0.1834070384502411, -0.18998727202415466, 0.004992704838514328,
    -0.0244863610714674, 0.1879429817199707, 0.015255431644618511,
    0.31394124031066895, 0.3856109380722046, 0.4724298417568207,

    -0.012562639079988003, 0.17085622251033783, 0.1528359204530716,
    0.2614060640335083, 0.2564047574996948, 0.16589559614658356,
    -0.05580291897058487, -0.11817818135023117, -0.32337895035743713,


    0.22774724662303925, 0.3006231188774109, -0.032386887818574905,
    0.11221679300069809, 0.03233034163713455, 0.11197423934936523,
    -0.10225056111812592, -0.24708154797554016, -0.1332731544971466,

    0.07055354863405228, -0.027610817924141884, 0.06838054209947586,
    0.14382480084896088, -0.16447700560092926, -0.38829872012138367,
    0.3678203523159027, -0.18484711647033691, -0.3568645715713501,

    -0.024231942370533943, -0.1299501210451126, -0.12634894251823425,
    0.04334557428956032, 0.03652563691139221, -0.024497251957654953,
    -0.019092842936515808, 0.042998671531677246, -0.07630044221878052,

    0.27726659178733826, 0.31049051880836487, 0.24166397750377655,
    0.15282317996025085, 0.08187089115381241, 0.5070776343345642,
    -0.008386977948248386, -0.039720095694065094, 0.2388496845960617,

    -0.00525498716160655, 0.12139099836349487, -0.10866397619247437,
    0.11198365688323975, -0.1497068703174591, -0.49592602252960205,
    0.34331420063972473, 0.15441572666168213, -0.1931820809841156,


    -0.0904877558350563, -0.2385469526052475, -0.18897771835327148,
    0.02792980894446373, 0.12536290287971497, 0.1900988221168518,
    0.14881643652915955, 0.1887492686510086, 0.1853742003440857,

    0.24194982647895813, 0.2266646772623062, 0.42067787051200867,
    0.4390260577201843, 0.002253730781376362, 0.02326069213449955,
    0.08080602437257767, -0.1388147920370102, -0.41446295380592346,

    -0.06142072752118111, -0.009519190527498722, -0.07153575122356415,
    -0.01751406490802765, -0.0831565335392952, -0.07925056666135788,
    0.03816398233175278, -0.1321357786655426, -0.07042188197374344,

    0.02758297510445118, -0.22994431853294373, -0.29905611276626587,
    -0.05055191367864609, 0.12694336473941803, 0.16942672431468964,
    0.32013872265815735, 0.3886578381061554, 0.33221039175987244,

    0.10302187502384186, 0.1165061667561531, 0.13744887709617615,
    0.2658986449241638, 0.029774917289614677, 0.045826077461242676,
    0.16921466588974, -0.16847367584705353, -0.381068617105484,


    -0.04179826006293297, 0.29558175802230835, 0.45422521233558655,
    0.12694180011749268, 0.3845812678337097, 0.011581134982407093,
    0.017402498051524162, -0.06831583380699158, -0.30865055322647095,

    0.6245464086532593, 0.396224707365036, -0.08360754698514938,
    0.3414771854877472, -0.017659936100244522, -0.08690188825130463,
    -0.019079698249697685, 0.11117979884147644, 0.27864280343055725,

    0.08056764304637909, -0.08930240571498871, -0.021848123520612717,
    0.07917523384094238, -0.010690554976463318, -0.09693049639463425,
    -0.08689531683921814, -0.14067846536636353, 0.04146651551127434,

    -0.02681303396821022, 0.32623833417892456, 0.42364662885665894,
    0.280180960893631, 0.2132987380027771, 0.20644515752792358,
    -0.1640080213546753, -0.3079811632633209, -0.32211628556251526,

    0.4979188144207001, 0.2906036674976349, -0.1796071082353592,
    0.14173957705497742, -0.11548905819654465, 0.013534116558730602,
    0.005101732909679413, 0.028128543868660927, 0.1351923942565918,


    -0.0006029856740497053, 0.07734505087137222, 0.11670051515102386,
    0.013522461988031864, 0.18801166117191315, 0.37817034125328064,
    -0.17539256811141968, 0.09065528213977814, 0.20675063133239746,

    0.11231669038534164, 0.2871391773223877, 0.20659196376800537,
    0.014166480861604214, 0.007096285931766033, -0.08811253309249878,
    -0.08237195760011673, -0.3327185809612274, -0.2962365746498108,

    -0.13183124363422394, -0.10465162992477417, 0.024684779345989227,
    -0.08040568232536316, 0.13263967633247375, 0.14778520166873932,
    0.006744966842234135, 0.12344209849834442, -0.025867829099297523,

    -0.015828311443328857, 0.17559213936328888, -0.11265403032302856,
    -0.010120225138962269, 0.16115739941596985, 0.24957653880119324,
    0.03664135932922363, 0.17795468866825104, -0.0007600240060128272,

    0.10880354791879654, 0.03223280608654022, 0.11790574342012405,
    0.04336746409535408, -0.14635337889194489, -0.01064352598041296,
    0.0659603476524353, -0.3510386049747467, -0.2928171455860138
};
const float Conv_3_weight[CONV_3_OUTPUT_CHANNEL][CONV_2_OUTPUT_CHANNEL][3][3] = 
{
    0.06313572078943253, 0.10282453149557114, 0.15114739537239075,
    0.13343723118305206, -0.1542041152715683, -0.15986140072345734,
    0.22850558161735535, 0.02996070869266987, 0.01359916664659977,

    0.11619051545858383, -0.17092028260231018, -0.20893658697605133,
    0.8061273097991943, 0.29610657691955566, 0.019828805699944496,
    0.5638612508773804, 0.1487390100955963, 0.1274009495973587,

    -0.04706442728638649, 0.03436444699764252, -0.07504977285861969,
    0.08055689930915833, 0.2960357069969177, 0.15174870193004608,
    0.07622864842414856, 0.09874983876943588, 0.40982094407081604,

    -0.0458545908331871, -0.09108203649520874, -0.1333497017621994,
    0.1257999688386917, -0.2976832687854767, -0.24401211738586426,
    0.3402941823005676, 0.14126421511173248, -0.09217489510774612,

    0.19270722568035126, 0.27740710973739624, 0.3040667772293091,
    -0.02520594373345375, -0.18127363920211792, -0.18227554857730865,
    -0.22075730562210083, -0.09882154315710068, -0.2062150090932846,

    -0.005838083103299141, 0.01742003671824932, -0.003702190238982439,
    0.10193273425102234, -0.04836852848529816, 0.060305532068014145,
    0.20582368969917297, 0.08296012133359909, 0.09399630129337311,

    0.24532848596572876, 0.1407385617494583, 0.09196650236845016,
    -0.034783367067575455, -0.2349153310060501, -0.1186850294470787,
    0.0993545800447464, -0.032184209674596786, 0.05089596286416054,

    -0.13353167474269867, 0.005607491359114647, -0.10993250459432602,
    0.06166616827249527, -0.12496259808540344, 0.010917834006249905,
    0.1508990079164505, 0.2140805423259735, -0.028457246720790863,

    -0.09103266149759293, 0.17179284989833832, 0.11205093562602997,
    0.08096025884151459, -0.009377159178256989, 0.004027778748422861,
    0.05663643777370453, -0.07447071373462677, 0.08964397013187408,

    0.15368564426898956, 0.1559087187051773, 0.03362755477428436,
    0.01279948279261589, -0.26943597197532654, -0.059956181794404984,
    0.20791542530059814, 0.189863920211792, 0.11608802527189255,


    0.042738478630781174, 0.15396623313426971, 0.15284328162670135,
    0.03767676651477814, 0.08539627492427826, 0.1345895677804947,
    -0.1543717384338379, -0.12894614040851593, -0.03970816358923912,

    -0.12762905657291412, 0.06261996924877167, 0.15231797099113464,
    0.14685823023319244, -0.04645276814699173, 0.14985376596450806,
    -0.07756979018449783, -0.2688743770122528, 0.45462438464164734,

    0.05539781600236893, -0.022548632696270943, -0.21774615347385406,
    0.004608383402228355, 0.0708034411072731, -0.22563989460468292,
    0.16782881319522858, 0.09548208117485046, 0.19409847259521484,

    -0.030478110536932945, 0.3914327323436737, 0.12106744945049286,
    0.024893738329410553, 0.18116939067840576, 0.1685003787279129,
    0.052101537585258484, -0.23525145649909973, -0.1665336936712265,

    -0.07572414726018906, 0.08730324357748032, 0.08011969178915024,
    -0.0999719575047493, -0.08654633909463882, -0.02713548205792904,
    -0.14772343635559082, -0.09574388712644577, 0.0074049001559615135,

    0.22569578886032104, 0.06612100452184677, 0.047384388744831085,
    0.179244726896286, 0.008622168563306332, 0.14552387595176697,
    0.03226184844970703, -0.05219769850373268, -0.09827614575624466,

    0.12651291489601135, 0.09699659049510956, 0.2611338496208191,
    -0.1510877162218094, 0.2001936435699463, 0.21662849187850952,
    -0.0607387013733387, -0.15914323925971985, -0.1405550092458725,

    0.21317143738269806, 0.26386046409606934, 0.04345952346920967,
    0.004982179030776024, -0.07335437834262848, 0.19030532240867615,
    -0.12354997545480728, -0.1525721549987793, -0.28795716166496277,

    0.10945157706737518, 0.11816103756427765, 0.07034792751073837,
    0.02358635701239109, 0.1170012578368187, -0.15166115760803223,
    -0.11778487265110016, 0.06623689830303192, 0.2586915194988251,

    0.10475374013185501, 0.14634771645069122, 0.264197438955307,
    0.023690281435847282, -0.023410052061080933, 0.10276508331298828,
    -0.08524171262979507, -0.07229699939489365, -0.25537994503974915,


    0.012586313299834728, 0.05404691770672798, 0.023193031549453735,
    -0.027325216680765152, 0.08305417001247406, -0.05334460735321045,
    0.06624452024698257, 0.02161308191716671, 0.018545692786574364,

    0.44875845313072205, -0.052274350076913834, 0.3422684669494629,
    -0.19158165156841278, -0.11764161288738251, 0.24663111567497253,
    -0.08197716623544693, 0.016633853316307068, 0.08234837651252747,

    -0.09903106838464737, 0.15378841757774353, 0.1827574223279953,
    0.058228205889463425, -0.10566605627536774, 0.08245966583490372,
    0.14597652852535248, 0.007473174948245287, -0.16121770441532135,

    0.08687365800142288, -0.07063629478216171, 0.05700336769223213,
    -0.0361691378057003, 0.021574825048446655, 0.1892884522676468,
    0.06096450239419937, 0.17029789090156555, 0.24845056235790253,

    0.10903455317020416, 0.1615232527256012, 0.20406383275985718,
    0.03427087515592575, 0.26745250821113586, 0.03174115717411041,
    0.07184271514415741, 0.07554356008768082, -0.038892392069101334,

    0.09380935877561569, 0.003397162538021803, -0.019696859642863274,
    0.013613643124699593, 0.17813712358474731, -0.04093353822827339,
    0.09482814371585846, 0.08964523673057556, -0.05471169948577881,

    -0.04022444039583206, -0.10382435470819473, 0.016149373725056648,
    0.1531006246805191, 0.07702422887086868, -0.18323922157287598,
    -0.14409208297729492, 0.219386026263237, -0.18598315119743347,

    0.052649565041065216, -0.06146946921944618, -0.11166506260633469,
    0.07080531120300293, 0.14352911710739136, -0.14919668436050415,
    0.1567583531141281, 0.18719859421253204, 0.07364072650671005,

    -0.0264873243868351, 0.17856760323047638, 0.10779068619012833,
    0.25597819685935974, 0.11415410041809082, 0.05813363939523697,
    -0.02192794345319271, 0.019780045375227928, -0.04173722118139267,

    0.14672592282295227, -0.017969708889722824, 0.023498190566897392,
    0.030047638341784477, 0.031341247260570526, -0.10525888949632645,
    -0.0671197921037674, 0.1640792340040207, 0.2128625363111496,


    -0.01328963227570057, 0.19028617441654205, 0.07664555311203003,
    -0.20752942562103271, 0.06051599606871605, 0.11392368376255035,
    0.02145458571612835, 0.05649597942829132, -0.05843476951122284,

    -0.16691499948501587, 0.07514632493257523, 0.12494531273841858,
    0.657884955406189, 0.41423559188842773, 0.20520973205566406,
    -0.14227670431137085, 0.42671841382980347, 0.0652565062046051,

    0.10104766488075256, 0.04043722152709961, 0.0008422418031841516,
    0.2588643431663513, 0.3589140474796295, 0.10296639800071716,
    0.43186095356941223, 0.16605326533317566, 0.17668327689170837,

    -0.04733556509017944, 0.22158116102218628, 0.20555362105369568,
    -0.06169384717941284, -0.11088278144598007, -0.15017256140708923,
    -0.3021821975708008, 0.21765105426311493, 0.02882920391857624,

    0.13121531903743744, 0.07263306528329849, 0.10456249862909317,
    -0.15589216351509094, -0.004796311259269714, 0.07551760226488113,
    0.16600722074508667, 0.15044131875038147, -0.2597445547580719,

    0.11983969807624817, 0.09562522172927856, 0.15638189017772675,
    0.025624599307775497, 0.08059001713991165, 0.15401779115200043,
    0.04981205612421036, 0.1879739910364151, 0.03598325699567795,

    0.03284604847431183, 0.2904609143733978, 0.030322104692459106,
    -0.07561320066452026, -0.09051234275102615, 0.020829902961850166,
    0.08440715074539185, 0.09520109742879868, -0.09896525740623474,

    -0.11249563097953796, 0.00677940808236599, 0.06883738189935684,
    0.013136948458850384, -0.051687754690647125, -0.14379163086414337,
    0.11376813799142838, 0.14211724698543549, 0.028859473764896393,

    0.10873211175203323, 0.24745622277259827, 0.015775779262185097,
    -0.12320201843976974, -0.016350530087947845, 0.21955570578575134,
    0.06795816868543625, 0.18283940851688385, 0.10683870315551758,

    0.016816526651382446, 0.11297033727169037, 0.13479137420654297,
    -0.10043412446975708, 0.06749901920557022, -0.0033957597333937883,
    -0.06830232590436935, 0.0412578359246254, -0.035597577691078186,


    0.02106412872672081, -0.18762288987636566, -0.0693405345082283,
    0.06386025249958038, 0.12125442177057266, -0.06947904080152512,
    0.095298171043396, 0.05113391578197479, -0.19508793950080872,

    0.35159772634506226, -0.19810813665390015, -0.10321104526519775,
    -0.2552785873413086, -0.03951980546116829, -0.017012065276503563,
    -0.14206711947917938, 0.627220630645752, -0.1477537453174591,

    0.00013145814591553062, 0.02051234431564808, 0.3092278838157654,
    -0.04797859862446785, -0.016360390931367874, 0.3213072717189789,
    -0.08959998935461044, 0.0815274640917778, 0.2239181250333786,

    0.14627356827259064, -0.04676545783877373, -0.09479951113462448,
    -0.007289881817996502, 0.13594597578048706, 0.16028228402137756,
    -0.12562532722949982, 0.31435179710388184, -0.12060366570949554,

    0.08071863651275635, -0.19551432132720947, -0.21472544968128204,
    -0.07837765663862228, 0.15087172389030457, 0.12355208396911621,
    0.054044924676418304, 0.058838535100221634, -0.1302085518836975,

    0.10910435020923615, -0.025361565873026848, -0.056241221725940704,
    -0.019228313118219376, 0.2468697875738144, -0.012527198530733585,
    0.00559677928686142, 0.030702443793416023, -0.1699444204568863,

    -0.1026376411318779, -0.15528088808059692, -0.31634944677352905,
    0.09941084682941437, 0.10239502042531967, 0.03160900995135307,
    0.1662771850824356, 0.1061091274023056, -0.11072208732366562,

    -0.03225589171051979, 0.24984806776046753, -0.023164823651313782,
    0.07672061026096344, 0.08638789504766464, -0.0690310150384903,
    0.2249964028596878, -0.05414636433124542, -0.12994781136512756,

    0.11562652140855789, -0.2547323703765869, -0.2853979468345642,
    -0.06440487504005432, 0.23570412397384644, 0.15053272247314453,
    -0.028096703812479973, 0.2005515694618225, -0.0010193372145295143,

    0.021580718457698822, -0.064793661236763, -0.15126542747020721,
    0.02489432692527771, 0.18911291658878326, 0.03386297449469566,
    -0.11765307933092117, 0.08363485336303711, -0.23012670874595642,


    -0.10427843034267426, 0.07755663245916367, 0.02680926024913788,
    0.035696085542440414, 0.007400782313197851, 0.0662090852856636,
    -0.005473377648741007, -0.30033236742019653, -0.15474049746990204,

    0.1672378033399582, -0.10514240711927414, 0.15242476761341095,
    -0.005001279525458813, -0.36209166049957275, 0.23074817657470703,
    -0.007981905713677406, -0.29549795389175415, -0.07809655368328094,

    0.1390923708677292, 0.04726259782910347, 0.01302595529705286,
    -0.002595103345811367, 0.3036192059516907, 0.3364218771457672,
    0.08947816491127014, 0.15285861492156982, 0.15909667313098907,

    0.01754516363143921, -0.005371752195060253, 0.120127834379673,
    0.09745322167873383, -0.1145724356174469, -0.18834556639194489,
    -0.043042026460170746, -0.16106794774532318, 0.023936131969094276,

    0.023432113230228424, 0.06874413788318634, 0.19195100665092468,
    0.062136076390743256, 0.14271573722362518, 0.2170335352420807,
    0.09250136464834213, -0.3259233832359314, -0.4349871277809143,

    0.22327029705047607, 0.050376199185848236, -0.0035149140749126673,
    0.13008512556552887, -0.07814035564661026, -0.23663081228733063,
    -0.014070669189095497, 0.17137232422828674, 0.1702689379453659,

    -0.07240802049636841, -0.0016802925383672118, -0.05134805664420128,
    0.13800251483917236, 0.018902843818068504, 0.15933813154697418,
    -0.07323481887578964, -0.2632431089878082, -0.42460131645202637,

    0.09630478918552399, 0.16628792881965637, 0.2021441012620926,
    0.025466086342930794, -0.1957753449678421, -0.28062328696250916,
    0.006775302346795797, 0.11438699811697006, 0.2301805019378662,

    0.004749078303575516, 0.00754736689850688, -0.00812144111841917,
    0.23619873821735382, 0.17341600358486176, 0.36456963419914246,
    -0.011507655493915081, -0.25364255905151367, -0.42230796813964844,

    0.0023434998001903296, 0.13039258122444153, 0.01930713653564453,
    0.19633574783802032, 0.0561935156583786, -0.09369223564863205,
    0.06567974388599396, -0.15820994973182678, -0.1112060397863388,


    0.051480479538440704, -0.04660801216959953, -0.12753529846668243,
    -0.011170187965035439, 0.1538664847612381, 0.190723717212677,
    0.037399280816316605, -0.18048252165317535, -0.3366886377334595,

    0.08132598549127579, 0.260098397731781, 0.2371501326560974,
    0.2746325731277466, -0.3222118318080902, -0.27728259563446045,
    0.36231324076652527, -0.2326473891735077, -0.29467400908470154,

    -0.07531507313251495, 0.07863520085811615, 0.2594415843486786,
    0.1548403948545456, -0.1417071372270584, -0.5541165471076965,
    0.05094551667571068, 0.3421914577484131, 0.5106143951416016,

    0.09202669560909271, -0.07644156366586685, 0.16681602597236633,
    0.031866949051618576, 0.18635550141334534, 0.20230472087860107,
    0.10718013346195221, -0.038760341703891754, 0.01652960292994976,

    0.10378103703260422, 0.11356353014707565, 0.013263162225484848,
    0.01978841796517372, 0.1209041029214859, 0.26450422406196594,
    0.024813804775476456, -0.24822284281253815, -0.6737949252128601,

    -0.03784327208995819, -0.07481361925601959, -0.13101878762245178,
    0.13926397264003754, 0.14619553089141846, 0.1703379899263382,
    0.13473017513751984, -0.13514171540737152, -0.20465610921382904,

    -0.08185750991106033, -0.07734090834856033, -0.16159294545650482,
    0.13016627728939056, 0.13250212371349335, 0.2317192703485489,
    -0.10049440711736679, 0.02828463353216648, -0.21979281306266785,

    -0.13552722334861755, -0.003951581194996834, -0.05277377739548683,
    0.03642082214355469, 0.19161725044250488, 0.39483892917633057,
    -0.05631071701645851, -0.278153657913208, -0.292761892080307,

    0.06174900010228157, 0.0278707854449749, 0.20205476880073547,
    -0.04189557954668999, 0.07596834748983383, -0.055032435804605484,
    0.06927109509706497, 0.08616006374359131, -0.044797640293836594,

    0.087510846555233, -0.14302243292331696, 0.0042492700740695,
    0.1313101351261139, 0.05543840304017067, 0.22897931933403015,
    0.0771106705069542, -0.1845196634531021, -0.4523085057735443,


    0.019330084323883057, 0.044401366263628006, -0.0378442257642746,
    0.10617980360984802, -0.24165977537631989, 0.07481712102890015,
    0.06166794151067734, 0.15750396251678467, 0.15355433523654938,

    -0.1623857021331787, -0.15112648904323578, -0.17961406707763672,
    -0.08756592869758606, -0.10036783665418625, -0.2146013081073761,
    -0.05809207260608673, -0.3980664908885956, -0.25285831093788147,

    0.16499242186546326, 0.021149765700101852, 0.0646858960390091,
    0.2005590796470642, 0.19322159886360168, 0.14124028384685516,
    -0.06437837332487106, -0.25295066833496094, 0.1888798177242279,

    0.07898049801588058, -0.06570907682180405, -0.024442357942461967,
    0.2670876979827881, -0.3519214689731598, -0.2222641408443451,
    0.15346749126911163, -0.05214323848485947, 0.033409446477890015,

    0.07937408238649368, -0.03889932855963707, 0.008281228132545948,
    0.17059403657913208, -0.1228918805718422, 0.13816289603710175,
    0.07256083190441132, -0.0037934891879558563, -0.08551861345767975,

    0.02133132331073284, 0.02271515317261219, -0.1471622735261917,
    0.12300528585910797, 0.026481084525585175, 0.21307241916656494,
    0.15551412105560303, 0.11065657436847687, 0.18359845876693726,

    0.032836176455020905, 0.22582194209098816, -0.027100229635834694,
    -0.07744275778532028, -0.11827745288610458, 0.06239526718854904,
    0.048471599817276, 0.08220643550157547, 0.15898890793323517,

    -0.0030370503664016724, -0.05102773383259773, -0.06297450512647629,
    0.06953399628400803, -0.10361233353614807, 0.2783353626728058,
    0.22984962165355682, 0.02276168018579483, 0.02809165231883526,

    0.11934425681829453, 0.13226719200611115, 0.10138887912034988,
    0.11396212875843048, -0.0911489948630333, 0.06534887105226517,
    -0.07921060919761658, 0.0956454947590828, 0.22661414742469788,

    -0.04367385804653168, -0.04072035476565361, -0.12561532855033875,
    0.08239813894033432, -0.11194885522127151, -0.07436677813529968,
    0.057977963238954544, 0.213424950838089, 0.07776972651481628,


    -0.06990951299667358, -0.01405819971114397, 0.09529610723257065,
    0.09450935572385788, -0.03991951420903206, 0.17662297189235687,
    -0.052649278193712234, 0.051916323602199554, 0.1345229297876358,

    0.1335114985704422, 0.017475787550210953, -0.030237073078751564,
    0.17826199531555176, -0.32182082533836365, -0.089565709233284,
    0.09322624653577805, 0.055719323456287384, -0.007829840295016766,

    0.08483609557151794, 0.1774546355009079, -0.008541405200958252,
    0.023109596222639084, -0.09772400557994843, -0.15369704365730286,
    0.045834820717573166, -0.0029002781957387924, -0.0052051302045583725,

    0.16129978001117706, -0.0706762969493866, 0.006853052414953709,
    0.28036943078041077, -0.21854829788208008, 0.00606879685074091,
    -0.09309988468885422, -0.07145846635103226, 0.04072266444563866,

    0.04995359852910042, -0.07026752084493637, -0.003477312857285142,
    -0.07160396128892899, 0.03578990697860718, -0.021809637546539307,
    0.2013256996870041, 0.1074792817234993, 0.1296105980873108,

    0.06553609669208527, -0.0016307225450873375, -0.12057577073574066,
    -0.01609726995229721, 0.1153801679611206, 0.09697762876749039,
    -0.05007857456803322, 0.12079931795597076, -0.12112969905138016,

    -0.1756572127342224, 0.06108527630567551, 0.07276346534490585,
    -0.02011053077876568, -0.1423976570367813, 0.22886118292808533,
    0.15317261219024658, 0.211602121591568, 0.21355056762695312,

    -0.012348759919404984, -0.06281010061502457, 0.07794307917356491,
    0.051398806273937225, 0.06458116322755814, 0.23397120833396912,
    0.14229464530944824, -0.0871303528547287, -0.060305673629045486,

    0.11435741186141968, -0.04738306254148483, 0.10074001550674438,
    0.0033620218746364117, -0.04640953987836838, -0.03360199183225632,
    -0.02285058982670307, 0.3672448396682739, 0.2218705713748932,

    0.03754344582557678, -0.14339037239551544, -0.08667691051959991,
    0.02439298667013645, -0.0014084132853895426, 0.09097609668970108,
    0.12166379392147064, 0.20410294830799103, 0.10988572984933853,


    0.04508209228515625, -0.08791739493608475, 0.19899798929691315,
    0.07179081439971924, 0.07185922563076019, 0.1147816851735115,
    0.16698025166988373, 0.06840074807405472, -0.09481482952833176,

    -0.021437758579850197, 0.06946133077144623, -0.06257827579975128,
    -0.07616343349218369, -0.21368688344955444, -0.3206007182598114,
    -0.12034193426370621, -0.31176164746284485, -0.2957807183265686,

    0.04607699438929558, 0.05549939349293709, -0.05011526495218277,
    0.028842812404036522, -0.01940813474357128, 0.11544225364923477,
    0.00486399931833148, -0.23699410259723663, -0.1896204948425293,

    0.20297981798648834, 0.03206481784582138, 0.08676508814096451,
    0.09600165486335754, 0.019585363566875458, 0.021762480959296227,
    0.19669634103775024, 0.23423539102077484, 0.20448291301727295,

    0.029100660234689713, -0.061485905200242996, 0.2250765860080719,
    0.1842273622751236, 0.1667882651090622, -0.01117014605551958,
    -0.28468891978263855, -0.059559572488069534, -0.05012070760130882,

    0.11471667140722275, 0.10153719037771225, 0.2276121973991394,
    0.011952403001487255, 0.03468576818704605, -0.1655704826116562,
    0.11226126551628113, 0.046578530222177505, 0.026301946491003036,

    -0.011120024137198925, 0.017975952476263046, 0.22108027338981628,
    0.14690694212913513, 0.1404939591884613, 0.02456803061068058,
    0.13537123799324036, 0.03570668026804924, -0.21139103174209595,

    0.058075957000255585, 0.00021119062148500234, 0.27695000171661377,
    0.13047702610492706, -0.07763437181711197, -0.15017123520374298,
    0.005720868706703186, 0.16384314000606537, 0.09473231434822083,

    0.0031511965207755566, -0.04132550209760666, 0.0397985577583313,
    0.19033876061439514, 0.17437982559204102, 0.22244618833065033,
    0.0198894664645195, -0.1992078274488449, -0.15927059948444366,

    0.11738225072622299, -0.03124849498271942, 0.11617690324783325,
    0.06467216461896896, -0.07129377871751785, -0.041182711720466614,
    0.09436897188425064, 0.07013247907161713, 0.08494509011507034
};


const float FC_weight[FC_1_OUTPUT_SIZE][FC_1_INPUT_SIZE] = 
{
    -0.11656330525875092, -0.2852286100387573, -0.124306820333004, 0.20553261041641235, 
    0.03213033825159073, 0.09153799712657928, -0.18183858692646027, 0.18609285354614258, 
    0.025964265689253807, -0.18318207561969757, 0.2536614239215851, -0.08620928227901459, 
    0.10795827955007553, -0.20097985863685608, 0.025702865794301033, -0.13854841887950897, 
    -0.038151439279317856, -0.07993592321872711, 0.21935205161571503, -0.20332658290863037, 
    -0.30635780096054077, 0.07637529075145721, -0.31449204683303833, 0.05931806191802025, 
    -0.08035022020339966, 0.13101014494895935, -0.49309980869293213, 0.05597074329853058, 
    0.05405894294381142, -0.2606433629989624, -0.22102071344852448, 0.102341428399086, 
    0.14599528908729553, 0.05357270687818527, -0.138972669839859, 0.1496296226978302, 
    0.09437347203493118, -0.1569792479276657, 0.2343561202287674, -0.009775914251804352,

    -0.06179451942443848, 0.31707048416137695, -0.015182280912995338, -0.03757505863904953,
    0.20335808396339417, 0.03428833559155464, -0.18159519135951996, -0.11221454292535782, 
    -0.1503911167383194, -0.04145657643675804, -0.19360986351966858, 0.008111433126032352, 
    0.00020947401935700327, 0.25897398591041565, 0.06989976763725281, 0.1944011151790619, 
    0.17782683670520782, 0.10882068425416946, -0.2633410692214966, -0.22742517292499542, 
    0.07261429727077484, -0.33492979407310486, 0.16381244361400604, 0.0028210636228322983, 
    -0.3859182894229889, -0.28787490725517273, -0.11002752184867859, -0.004390682093799114, 
    0.02614935301244259, -0.10734532028436661, 0.27803897857666016, -0.28068625926971436, 
    -0.1027102842926979, -0.04467831924557686, 0.025956302881240845, -0.32911190390586853, 
    -0.2748476564884186, -0.03581276163458824, -0.2674364447593689, -0.125465989112854,

    -0.15719938278198242, -0.0017039626836776733, 0.15966902673244476, -0.15112751722335815, 
    0.13951630890369415, 0.1889263093471527, -0.22299420833587646, -0.25704964995384216, 
    0.0036742459051311016, -0.016459228470921516, 0.09498558193445206, -0.027595272287726402, 
    -0.08631240576505661, 0.0007255991804413497, 0.0017944175051525235, -0.12755970656871796, 
    -0.07053745537996292, -0.08119994401931763, 0.45307308435440063, -0.13776493072509766, 
    0.30682387948036194, -0.3425452709197998, -0.10869257152080536, -0.06706750392913818, 
    0.07911593466997147, -0.267015665769577, 0.023142805323004723, 0.13408386707305908, 
    0.008089352399110794, -0.17563386261463165, 0.24796545505523682, 0.11128054559230804, 
    0.16902868449687958, -0.06304869055747986, 0.262004554271698, 0.05031514912843704, 
    0.20316274464130402, -0.061446379870176315, -0.0533282496035099, 0.08376391232013702,

    -0.16125953197479248, -0.12226095795631409, 0.14978325366973877, -0.2117501199245453, 
    0.08701873570680618, 0.16301393508911133, -0.22521251440048218, 0.12635929882526398, 
    -0.16480980813503265, 0.20138555765151978, -0.11706443876028061, -0.09787202626466751, 
    -0.16282449662685394, 0.0974847748875618, 0.18337202072143555, -0.056039582937955856, 
    -0.0936511754989624, 0.04679584875702858, -0.10331051796674728, -0.2944701313972473, 
    0.19197618961334229, -0.3096272945404053, 0.11795363575220108, -0.16845977306365967, 
    0.18242637813091278, -0.12336347997188568, 0.37914958596229553, -0.22804108262062073, 
    -0.0648556798696518, 0.1540311872959137, 0.195309579372406, -0.0650135725736618, 
    -0.06424710899591446, -0.009198330342769623, -0.09021611511707306, -0.017682528123259544, 
    0.19945169985294342, 0.10652060806751251, 0.05967305228114128, 0.09019635617733002,

    0.0745604857802391, 0.20496772229671478, -0.27439427375793457, -0.22418811917304993, 
    -0.3033152222633362, 0.009791038930416107, 0.22181257605552673, -0.11643175780773163, 
    -0.0006931796669960022, -0.0019954745657742023, 0.14118634164333344, 0.21469736099243164, 
    -0.05480600893497467, 0.20796379446983337, -0.04884888231754303, -0.021180937066674232, 
    -0.02105245366692543, -0.24279631674289703, 0.12485916912555695, 0.17051777243614197, 
    -0.7729240655899048, -0.5931254029273987, 0.16009245812892914, 0.019435852766036987, 
    -0.6526106595993042, -0.46189752221107483, 0.1289021372795105, 0.1755489856004715, 
    -0.09430819749832153, 0.04837113618850708, -0.3549889326095581, -0.07026911526918411, 
    -0.12329340726137161, 0.010912099853157997, 0.024154523387551308, 0.1513771265745163, 
    -0.056713301688432693, 0.009960861876606941, -0.21645964682102203, -0.08407995104789734,

    0.01933605596423149, 0.09000475704669952, 0.03351345285773277, 0.01384453009814024, 
    -0.13897612690925598, -0.21061721444129944, -0.06914966553449631, -0.016307828947901726, 
    -0.027009928598999977, 0.02427315153181553, 0.15158933401107788, -0.04870067164301872, 
    -0.07179000228643417, -0.15140624344348907, 0.04738631844520569, -0.05612531304359436, 
    0.011602679267525673, -0.011008810251951218, -0.32416972517967224, -0.12006102502346039, 
    -0.09554267674684525, 0.4568004906177521, 0.046742863953113556, -0.06710989773273468, 
    -0.10583727806806564, 0.3667832911014557, 0.24842675030231476, -0.33600443601608276, 
    0.04408137500286102, 0.21387973427772522, 0.019989510998129845, 0.01993626542389393, 
    -0.07150570303201675, 0.05993061885237694, 0.018504498526453972, -0.06582982838153839, 
    0.06388106942176819, 0.11031681299209595, 0.24316473305225372, -0.2674790024757385,

    0.13940417766571045, 0.3417133688926697, -0.42263659834861755, 0.10326489806175232, 
    -0.19382745027542114, -0.35352823138237, -0.1089429184794426, -0.08731724321842194, 
    0.04202137142419815, 0.10601896792650223, 0.09440349042415619, 0.05050797015428543, 
    0.17582984268665314, 0.4362758696079254, -0.22764740884304047, -0.32125771045684814, 
    0.04423157125711441, -0.21829546988010406, -0.30503425002098083, 0.04834599792957306, 
    -0.43498432636260986, 0.16794250905513763, -0.3898216187953949, -0.28303080797195435, 
    -0.39233317971229553, 0.16223187744617462, -0.26706838607788086, 0.007545304484665394, 
    0.06777067482471466, -0.07276061922311783, -0.012502029538154602, 0.24014005064964294, 
    -0.13580934703350067, -0.156510129570961, -0.04754380136728287, 0.11857688426971436, 
    -0.0982048436999321, 0.08599680662155151, -0.038797777146101, 0.16724835336208344,

    -0.04645986109972, -0.1419326215982437, 0.15436333417892456, -0.043124593794345856, 
    0.2554549276828766, -0.09315669536590576, 0.14075203239917755, 0.23075737059116364, 
    -0.025257188826799393, 0.0361911803483963, 0.004148770589381456, -0.22152656316757202, 
    -0.3252396285533905, -0.07203162461519241, -0.004920985084027052, 0.3438166677951813, 
    0.12003480643033981, -0.14035964012145996, 0.011311273090541363, 0.11434165388345718, 
    0.22115986049175262, -0.24767661094665527, 0.35990238189697266, -0.032809481024742126, 
    0.2535850703716278, -0.001098878332413733, -0.03591654449701309, 0.21236278116703033, 
    -0.10501689463853836, 0.10917928069829941, -0.21200895309448242, -0.2617368698120117, 
    0.11002940684556961, 0.04576326534152031, -0.20239223539829254, 0.04268283024430275, 
    -0.046389706432819366, -0.3527843654155731, -0.28773707151412964, -0.11865949630737305,

    -0.11731287091970444, -0.1920708566904068, -0.056737713515758514, 0.031332407146692276, 
    -0.0923546776175499, 0.11452839523553848, 0.12238367646932602, 0.0740349218249321, 
    0.10954353213310242, 0.03187437355518341, -0.005955852102488279, 0.006150844972580671, 
    0.1952112764120102, -0.24412021040916443, 0.19993649423122406, -0.27146074175834656, 
    -0.022138312458992004, -0.008312063291668892, 0.0649770051240921, -0.037792813032865524, 
    -0.4211612343788147, -0.14776469767093658, -0.2696787714958191, -0.25250542163848877, 
    -0.3107553720474243, 0.017629355192184448, -0.2883877754211426, -0.015179741196334362, 
    -0.010744341649115086, 0.005887209437787533, 0.14651352167129517, -0.40589845180511475, 
    0.15146011114120483, -0.026605898514389992, 0.11307565122842789, -0.2951054573059082, 
    0.15024760365486145, 0.18691003322601318, -0.09593875706195831, 0.22692103683948517,

    0.1763521283864975, -0.21089255809783936, -0.164607971906662, -0.2858852744102478, 
    -0.2748941481113434, -0.3425174951553345, 0.07461448013782501, 0.2599496841430664, 
    0.1123347282409668, 0.18613477051258087, 0.0537259615957737, -0.09823208302259445, 
    0.2517138421535492, -0.42597267031669617, -0.02341384068131447, 0.0787598118185997, 
    0.04738056659698486, -0.015624103136360645, -0.4052566885948181, 0.1280285120010376, 
    -0.6348987817764282, -0.1606234312057495, 0.13423968851566315, 0.14530178904533386, 
    -0.08363327383995056, -0.04812325909733772, 0.1610098034143448, -0.24789319932460785, 
    0.19531188905239105, -0.0668371170759201, -0.19525094330310822, -0.25179070234298706, 
    0.11445124447345734, 0.1309826821088791, -0.047733210027217865, 0.007753747049719095, 
    -0.1270880401134491, -0.005114892963320017, -0.2626734972000122, -0.16866634786128998
};

const float FC_bias[FC_1_OUTPUT_SIZE] = 
{
    -0.049949366599321365, -0.005498151294887066, 0.06527535617351532, -0.001953244674950838, 
    0.08739878237247467, 0.16909180581569672, -0.006762513890862465, -0.019222894683480263, 
    0.19328241050243378, -0.044815417379140854
};



float TestData[1][CONV_1_INPUT_SIZE][CONV_1_INPUT_SIZE] = 
{
    0., 0., 0., 0., 0., 0.,
    0., 0., 0., 0., 0., 0.,
    0., 0., 0., 0., 0., 0.,
    0., 0., 0., 0., 0., 0.,
    0., 0., 0., 0.,

    0., 0., 0., 0., 0., 0.,
    0., 0., 0., 0., 0., 0.,
    0., 0., 0., 0., 0., 0.,
    0., 0., 0., 0., 0., 0.,
    0., 0., 0., 0.,

    0., 0., 0., 0., 0., 0.,
    0., 0., 0., 0., 0., 0.,
    0., 0., 0., 0., 0., 0.,
    0., 0., 0., 0., 0., 0.,
    0., 0., 0., 0.,

    0., 0., 0., 0., 0., 0.,
    0., 0., 0., 0., 0., 0.,
    0., 0., 0., 0., 0., 0.,
    0., 0., 0., 0., 0., 0.,
    0., 0., 0., 0.,

    0., 0., 0., 0., 0., 0.,
    0., 0., 0., 0., 0., 0.,
    0., 0., 0., 0., 0., 0.,
    0., 0., 0., 0., 0., 0.,
    0., 0., 0., 0.,

    0., 0., 0., 0., 0., 0.,
    0., 0., 0., 0., 0., 0.,
    0., 0., 0., 0., 0., 0.,
    0., 0., 0., 0., 0., 0.,
    0., 0., 0., 0.,

    0., 0., 0., 0., 0., 0.,
    0., 0., 0., 0., 0., 0.,
    0., 0., 0., 0., 0., 0.,
    0., 0., 0., 0., 0., 0.,
    0., 0., 0., 0.,

    0., 0., 0., 0., 0., 0.,
    0.32941177, 0.7254902, 0.62352943, 0.5921569, 0.23529412, 0.14117648,
    0., 0., 0., 0., 0., 0.,
    0., 0., 0., 0., 0., 0.,
    0., 0., 0., 0.,

    0., 0., 0., 0., 0., 0.,
    0.87058824, 0.99607843, 0.99607843, 0.99607843, 0.99607843, 0.94509804,
    0.7764706, 0.7764706, 0.7764706, 0.7764706, 0.7764706, 0.7764706,
    0.7764706, 0.7764706, 0.6666667, 0.20392157, 0., 0.,
    0., 0., 0., 0.,

    0., 0., 0., 0., 0., 0.,
    0.2627451, 0.44705883, 0.28235295, 0.44705883, 0.6392157, 0.8901961,
    0.99607843, 0.88235295, 0.99607843, 0.99607843, 0.99607843, 0.98039216,
    0.8980392, 0.99607843, 0.99607843, 0.54901963, 0., 0.,
    0., 0., 0., 0.,

    0., 0., 0., 0., 0., 0.,
    0., 0., 0., 0., 0., 0.06666667,
    0.25882354, 0.05490196, 0.2627451, 0.2627451, 0.2627451, 0.23137255,
    0.08235294, 0.9254902, 0.99607843, 0.41568628, 0., 0.,
    0., 0., 0., 0.,

    0., 0., 0., 0., 0., 0.,
    0., 0., 0., 0., 0., 0.,
    0., 0., 0., 0., 0., 0.,
    0.3254902, 0.99215686, 0.81960785, 0.07058824, 0., 0.,
    0., 0., 0., 0.,

    0., 0., 0., 0., 0., 0.,
    0., 0., 0., 0., 0., 0.,
    0., 0., 0., 0., 0., 0.08627451,
    0.9137255, 1., 0.3254902, 0., 0., 0.,
    0., 0., 0., 0.,

    0., 0., 0., 0., 0., 0.,
    0., 0., 0., 0., 0., 0.,
    0., 0., 0., 0., 0., 0.5058824,
    0.99607843, 0.93333334, 0.17254902, 0., 0., 0.,
    0., 0., 0., 0.,

    0., 0., 0., 0., 0., 0.,
    0., 0., 0., 0., 0., 0.,
    0., 0., 0., 0., 0.23137255, 0.9764706,
    0.99607843, 0.24313726, 0., 0., 0., 0.,
    0., 0., 0., 0.,

    0., 0., 0., 0., 0., 0.,
    0., 0., 0., 0., 0., 0.,
    0., 0., 0., 0., 0.52156866, 0.99607843,
    0.73333335, 0.01960784, 0., 0., 0., 0.,
    0., 0., 0., 0.,

    0., 0., 0., 0., 0., 0.,
    0., 0., 0., 0., 0., 0.,
    0., 0., 0., 0.03529412, 0.8039216, 0.972549,
    0.22745098, 0., 0., 0., 0., 0.,
    0., 0., 0., 0.,

    0., 0., 0., 0., 0., 0.,
    0., 0., 0., 0., 0., 0.,
    0., 0., 0., 0.49411765, 0.99607843, 0.7137255,
    0., 0., 0., 0., 0., 0.,
    0., 0., 0., 0.,

    0., 0., 0., 0., 0., 0.,
    0., 0., 0., 0., 0., 0.,
    0., 0., 0.29411766, 0.9843137, 0.9411765, 0.22352941,
    0., 0., 0., 0., 0., 0.,
    0., 0., 0., 0.,

    0., 0., 0., 0., 0., 0.,
    0., 0., 0., 0., 0., 0.,
    0., 0.07450981, 0.8666667, 0.99607843, 0.6509804, 0.,
    0., 0., 0., 0., 0., 0.,
    0., 0., 0., 0.,

    0., 0., 0., 0., 0., 0.,
    0., 0., 0., 0., 0., 0.,
    0.01176471, 0.79607844, 0.99607843, 0.85882354, 0.13725491, 0.,
    0., 0., 0., 0., 0., 0.,
    0., 0., 0., 0.,

    0., 0., 0., 0., 0., 0.,
    0., 0., 0., 0., 0., 0.,
    0.14901961, 0.99607843, 0.99607843, 0.3019608, 0., 0.,
    0., 0., 0., 0., 0., 0.,
    0., 0., 0., 0.,

    0., 0., 0., 0., 0., 0.,
    0., 0., 0., 0., 0., 0.12156863,
    0.8784314, 0.99607843, 0.4509804, 0.00392157, 0., 0.,
    0., 0., 0., 0., 0., 0.,
    0., 0., 0., 0.,

    0., 0., 0., 0., 0., 0.,
    0., 0., 0., 0., 0., 0.52156866,
    0.99607843, 0.99607843, 0.20392157, 0., 0., 0.,
    0., 0., 0., 0., 0., 0.,
    0., 0., 0., 0.,

    0., 0., 0., 0., 0., 0.,
    0., 0., 0., 0., 0.23921569, 0.9490196,
    0.99607843, 0.99607843, 0.20392157, 0., 0., 0.,
    0., 0., 0., 0., 0., 0.,
    0., 0., 0., 0.,

    0., 0., 0., 0., 0., 0.,
    0., 0., 0., 0., 0.4745098, 0.99607843,
    0.99607843, 0.85882354, 0.15686275, 0., 0., 0.,
    0., 0., 0., 0., 0., 0.,
    0., 0., 0., 0.,

    0., 0., 0., 0., 0., 0.,
    0., 0., 0., 0., 0.4745098, 0.99607843,
    0.8117647, 0.07058824, 0., 0., 0., 0.,
    0., 0., 0., 0., 0., 0.,
    0., 0., 0., 0.,

    0., 0., 0., 0., 0., 0.,
    0., 0., 0., 0., 0., 0.,
    0., 0., 0., 0., 0., 0.,
    0., 0., 0., 0., 0., 0.,
    0., 0., 0., 0.

};